<?xml version="1.0"?>
<opencv_storage>
<my_svm type_id="opencv-ml-svm">
  <svm_type>C_SVC</svm_type>
  <kernel><type>LINEAR</type></kernel>
  <C>1.0000000000000000e-002</C>
  <term_criteria><epsilon>1.1920928955078125e-007</epsilon>
    <iterations>1000</iterations></term_criteria>
  <var_all>3780</var_all>
  <var_count>3780</var_count>
  <class_count>2</class_count>
  <class_labels type_id="opencv-matrix">
    <rows>1</rows>
    <cols>2</cols>
    <dt>i</dt>
    <data>
      -1 1</data></class_labels>
  <sv_total>1</sv_total>
  <support_vectors>
    <_>
      -3.77435237e-002 -3.00986995e-003 1.07139852e-002 -7.42849261e-002
      -2.93278247e-002 -2.59308666e-002 4.74541001e-002 3.04508079e-002
      -2.73425616e-002 -7.46204257e-002 2.89959833e-003 1.14542879e-002
      -4.18322831e-002 2.66120005e-002 -2.25064903e-002 4.30364460e-002
      2.42600199e-002 -6.15631379e-002 -2.32715625e-002 8.38755223e-004
      2.25753281e-002 -6.69511780e-002 -4.57362905e-002 -3.05037200e-002
      4.95638028e-002 3.44427936e-002 -7.85014406e-003 -3.07095852e-002
      1.46863833e-002 2.12215260e-002 -2.54445318e-002 -1.14431093e-002
      -2.16728635e-002 3.74211743e-002 3.86949070e-002 -3.05773914e-002
      -3.01114861e-002 4.20465833e-003 -7.28409551e-003 -4.30052243e-002
      1.74462851e-002 -5.54364026e-002 1.86396241e-002 -2.59782164e-003
      -3.42159197e-002 -3.29553559e-002 -6.71142898e-003
      -1.77563690e-002 -6.19573183e-002 3.51252081e-003 -4.67269532e-002
      -2.39923690e-002 -2.87767518e-002 -3.89883071e-002
      -1.45859485e-002 2.11182702e-002 1.31213255e-002 -4.08660173e-002
      -1.70431193e-002 -4.08257656e-002 1.21430000e-002 4.96197259e-003
      -2.20382772e-002 -1.17975716e-002 -9.80298733e-004
      -7.45748682e-003 -6.10606633e-002 -5.52814901e-002
      -6.14584424e-002 -1.92746986e-002 -1.42735019e-002
      -3.21146175e-002 -2.00661924e-002 -6.11596042e-003
      -1.29205259e-002 -4.39944156e-002 2.62556486e-002 -2.67963447e-002
      -1.18258502e-002 -1.99514404e-002 -1.80865861e-002
      -2.24152468e-002 -1.59797296e-002 -1.15133831e-002
      -2.74290442e-002 3.70295532e-002 -4.04542051e-002 -3.40729542e-002
      -4.53908332e-002 -3.88449915e-002 9.83472262e-003 -4.45741508e-003
      -2.10567769e-002 -6.45589903e-002 -1.66704450e-002
      -3.85502577e-002 -1.64217465e-002 -2.52863392e-002 4.89393889e-004
      2.67438329e-004 5.52204018e-003 -9.24030039e-003 -1.96654797e-002
      1.07090659e-002 -1.49885016e-002 -2.13014986e-002 -8.46517578e-005
      1.19994953e-002 9.36801604e-004 -1.82923619e-002 -6.68688258e-003
      -1.55831706e-002 3.41685079e-002 -3.16953957e-002 -3.22862081e-002
      -4.33534458e-002 -3.51783931e-002 3.39296013e-002 2.87856832e-002
      2.28521582e-002 1.47265512e-002 5.90843372e-002 -1.14891054e-002
      -7.00045284e-003 -2.36830339e-002 2.30553821e-002 1.61276329e-002
      8.52900557e-004 -2.56368089e-002 -1.87458452e-002 -4.30811290e-003
      -1.42121864e-002 -2.59780735e-002 -3.54566984e-003 6.84627041e-004
      5.49871996e-002 4.14844565e-002 2.00909134e-002 2.07701568e-002
      2.66001243e-002 -9.78652667e-003 -1.15264645e-002 1.78046823e-002
      5.14924452e-002 1.37497447e-002 3.79438233e-003 1.04991244e-002
      -2.29553264e-002 3.85666918e-003 -3.22990641e-002 -1.84196122e-002
      -2.58972216e-002 6.96119573e-003 2.27855183e-002 3.45426798e-002
      5.66616915e-002 2.80492827e-002 2.92104147e-002 -3.10218078e-004
      1.64015591e-002 7.16452487e-003 1.39969196e-002 2.35763043e-002
      -2.79664248e-003 4.60461620e-003 -3.38917063e-003 -1.21222194e-002
      -4.03896794e-002 -3.84331755e-002 -5.46202771e-002 1.58191170e-003
      1.80340931e-002 2.72033215e-002 3.74480113e-002 3.79784778e-002
      -2.82777939e-003 9.00088853e-005 -1.28287449e-003 -1.68214552e-002
      3.95873981e-003 9.99586098e-003 1.97389163e-002 3.78951728e-002
      4.61772084e-003 2.08672583e-002 -2.34733615e-002 -1.00835471e-003
      -5.03810076e-003 -3.86366085e-003 1.55601213e-002 1.20350374e-002
      3.92405055e-002 2.09598765e-002 4.05363217e-002 2.79662330e-002
      2.84546185e-002 1.80597976e-002 1.47733018e-002 -7.43919425e-003
      -8.88433028e-003 1.00122765e-002 4.68357932e-004 -1.60472970e-002
      -2.45500635e-002 1.67398434e-003 -1.50760608e-002 -1.80044328e-003
      -1.83142498e-002 -2.00389680e-002 9.01532453e-003 9.91275162e-003
      -2.27626003e-002 -1.20865246e-002 2.83723753e-002 9.78912786e-003
      -1.53367571e-003 6.38434058e-003 3.12591274e-003 2.19020247e-002
      -3.10334992e-002 1.21062677e-002 3.62006016e-002 3.15458365e-002
      1.48298824e-002 6.39510201e-003 4.23413068e-002 1.02208443e-002
      2.33474113e-002 -2.37554070e-002 2.49810726e-003 2.60885712e-002
      6.53289631e-002 1.88618712e-002 3.23762894e-002 -7.57951988e-003
      -4.83748224e-003 1.85519215e-002 -9.00925230e-003 -4.56600115e-002
      -1.73675211e-003 1.77907832e-002 -1.72001999e-002 -8.78824852e-003
      9.12146736e-003 2.93594822e-002 2.85496358e-002 -1.47542860e-002
      -3.50008756e-002 -1.05907368e-002 4.95770499e-002 -3.92212253e-003
      5.43124462e-003 2.35503763e-002 -8.80109426e-003 1.76454131e-002
      -1.43562118e-002 2.10820884e-002 -5.78820123e-004 4.99680005e-002
      -1.14688519e-002 -3.40566214e-004 1.00648459e-002 6.03167946e-003
      3.16664614e-002 4.40013735e-003 3.34340073e-002 2.32486650e-002
      4.48725931e-002 -4.08949243e-004 -7.57870264e-003 -7.29846419e-004
      -4.82797856e-003 5.55587234e-003 -1.57873947e-002 -1.74212866e-002
      -1.83705997e-003 2.71095429e-002 -3.35289016e-002 -1.95316616e-002
      6.30397489e-003 6.87564723e-003 2.27842126e-002 2.24395115e-002
      3.95976799e-003 3.58455479e-002 1.35104768e-002 -1.58128738e-002
      -6.29302487e-003 2.39301287e-002 -4.38336330e-003 1.30930217e-003
      -2.58526634e-002 1.30909923e-002 1.91698375e-003 2.22164150e-002
      1.54739013e-002 1.61193237e-002 2.43685264e-002 -1.31979091e-002
      1.24509307e-002 -9.25604254e-003 3.73063348e-002 -1.21129686e-002
      1.97923426e-002 5.72483474e-003 3.59480977e-002 2.87481546e-002
      5.87046193e-003 3.77460103e-003 -6.57773390e-003 -1.89961623e-002
      1.08032906e-002 -8.60098470e-003 -7.00978935e-003 2.41314992e-002
      4.48948443e-002 1.12921586e-002 1.63158476e-002 8.55025928e-003
      -1.86338648e-002 -1.30883818e-002 1.70196351e-002 1.20232138e-003
      4.83539924e-002 1.01714926e-002 -2.10990640e-003 2.08874885e-002
      3.17401811e-003 3.67459878e-002 1.81832705e-002 1.74222570e-002
      -2.28963066e-002 1.69991574e-003 2.48894412e-002 1.71357375e-002
      4.70253751e-002 2.58256565e-003 3.24992873e-002 6.47976389e-003
      6.78689627e-004 -9.63011011e-003 2.12168018e-003 5.24096657e-003
      3.72070982e-003 1.14715910e-002 -8.29053205e-003 -5.60965436e-003
      2.56063649e-003 8.36067181e-003 -3.31739485e-002 1.09294243e-002
      7.30326865e-004 1.09243738e-002 3.47371921e-002 6.26459578e-003
      2.56187923e-004 1.99221242e-002 -1.04954466e-002 -2.66474821e-002
      -1.65644381e-003 3.71473543e-002 2.24093292e-002 3.05249449e-002
      -1.73520446e-002 1.69338752e-002 -4.55184095e-003 -2.75949169e-005
      -2.49561272e-003 1.81483757e-002 2.55272891e-002 2.37813257e-002
      1.36139700e-002 -2.17991625e-003 5.28513417e-002 8.07180628e-003
      9.31332260e-003 -4.05122293e-003 3.17090340e-002 3.46055627e-002
      2.47649364e-002 2.12181471e-002 -2.02680510e-002 -2.73719765e-002
      -2.01088167e-003 -1.53319770e-002 -2.37814523e-002 3.31167690e-002
      4.51212786e-002 2.54259072e-002 1.88453533e-002 -1.21855633e-002
      -3.10757011e-002 1.10479491e-002 1.17585501e-002 4.40218532e-003
      3.61936055e-002 4.63201068e-002 9.57622100e-003 3.45053035e-003
      -8.54898710e-003 4.39704880e-002 1.84128620e-002 1.85970198e-002
      -1.63317588e-003 3.19589674e-002 5.31484932e-002 9.71164368e-003
      9.53520183e-003 1.73729900e-002 4.71750535e-002 -4.16874466e-003
      -1.21472019e-003 7.63416523e-004 3.90861183e-002 2.96776462e-002
      3.31687671e-003 2.40823510e-003 -1.07017960e-002 -3.54936793e-002
      -1.39605009e-003 1.30050145e-002 2.11528167e-002 2.41635051e-002
      2.78795697e-002 1.56609807e-002 -7.17722438e-003 1.97813883e-002
      1.55800115e-003 9.68800299e-003 1.67998727e-002 2.62475759e-002
      1.77291445e-002 4.30270396e-002 -2.55512830e-004 -1.22095663e-002
      -2.00734343e-002 2.26688255e-002 -2.88968049e-002 -1.76960137e-002
      -1.45088797e-002 2.81123240e-002 5.07437922e-002 3.50853102e-003
      1.78269818e-002 1.55075109e-002 4.54818457e-002 1.10857580e-002
      -8.38757958e-003 7.55876768e-003 3.64374779e-002 1.60936769e-002
      -1.52372411e-002 -3.59605514e-002 -3.03378385e-002
      -2.51081958e-002 -3.29082943e-002 -2.96740327e-002
      -1.16029354e-002 1.97184309e-002 2.00922899e-002 2.52203643e-003
      -1.07162828e-002 -1.73617117e-002 -8.09211750e-003 2.80774152e-003
      -1.16038378e-002 5.90726454e-003 3.23115438e-002 7.20568933e-003
      -1.62660331e-002 -1.02659333e-002 8.06133915e-003 3.38809714e-002
      -2.20375508e-003 3.83216795e-003 4.55309870e-003 1.89611921e-003
      -3.14511650e-004 1.32441027e-002 6.90193009e-003 2.20980775e-002
      4.06212099e-002 2.56646443e-002 3.81617695e-002 2.28375662e-002
      3.90891824e-003 2.66300514e-003 -9.05122235e-003 -4.06799167e-002
      -1.77368056e-002 -1.82727687e-002 -1.26428790e-002
      -6.42250525e-003 -2.12667696e-002 -6.13844069e-003 2.12536920e-002
      2.09244695e-002 -1.37472097e-002 2.25184932e-002 1.27403485e-002
      1.21340407e-002 2.40992885e-002 2.65168934e-003 -2.77402601e-003
      -3.70478965e-002 -2.21189507e-003 8.35680962e-003 -5.03754802e-003
      8.54416713e-002 1.85672101e-002 3.56086157e-002 1.57775227e-002
      -3.57933380e-002 -1.15924829e-003 -4.20532469e-003
      -1.03170369e-002 -1.90469027e-002 8.51455778e-002 1.55909928e-002
      1.21395681e-002 4.07031243e-004 -2.03185529e-002 2.66302773e-003
      2.87007280e-002 3.48291895e-003 -9.19703627e-004 4.20896932e-002
      1.06062340e-002 9.00894124e-003 1.19571211e-002 -1.27354311e-002
      1.83626208e-002 2.50505302e-002 -6.23729196e-004 -1.12758987e-002
      4.25791070e-002 1.44858072e-002 6.25662133e-003 1.55407321e-002
      2.43516192e-002 -4.19432819e-002 1.57275447e-003 7.41065713e-003
      -5.62925488e-002 -4.36908193e-002 -4.43148091e-002 1.43754892e-002
      5.93904173e-003 -2.73543783e-002 -5.52435368e-002 7.40667852e-003
      1.83720980e-002 -3.50925364e-002 -2.39788718e-003 -3.31801996e-002
      2.01997696e-003 1.14376117e-002 -4.32475731e-002 -1.62932742e-002
      3.32087390e-002 1.36240646e-002 -5.73436320e-002 -5.26012667e-003
      -3.93498242e-002 7.76218425e-004 1.63272955e-002 -1.97369158e-002
      -2.66093016e-002 3.19349878e-002 6.33343076e-003 -1.43698454e-002
      -1.24600651e-002 -2.30091959e-002 1.62196793e-002 2.28428878e-002
      -1.75914634e-002 -4.94390987e-002 1.77597739e-002 1.94417536e-002
      -2.01903302e-002 -1.82085193e-003 -3.11963838e-002 1.67931467e-002
      2.21715607e-002 -4.57500704e-002 -2.99790129e-002 2.96327937e-003
      8.90527386e-003 -1.75259952e-002 -2.09363122e-002 -4.41884026e-002
      -2.42347959e-002 -3.00984317e-003 -5.43919988e-002
      -3.08159087e-002 1.61077268e-002 -1.99745465e-002 -3.81249636e-002
      -7.06695765e-003 -2.51555629e-002 4.93504703e-002 5.26631102e-002
      -1.67853031e-002 -7.59240240e-002 -6.70266291e-003
      -2.07687411e-002 -3.66347283e-002 1.88563187e-002 -3.57142137e-003
      3.63651887e-002 3.72653566e-002 -4.38640006e-002 3.63362348e-003
      4.76900581e-003 5.53237228e-003 -4.14578617e-002 -2.40507368e-002
      -3.49247381e-002 -2.16237735e-002 8.85413494e-004 -1.01709496e-002
      2.09159739e-002 -2.69477093e-003 -1.12617658e-002 -2.98367944e-002
      1.42394172e-004 -1.68920290e-002 -2.49382220e-002 -1.46491239e-002
      1.12483390e-002 -3.48181054e-002 1.04499683e-002 1.03781857e-002
      -1.37963686e-002 2.96652839e-002 -1.29708117e-002 1.11283390e-002
      -8.41033179e-003 -4.36675847e-002 2.11986201e-003 -6.68780832e-003
      -1.05407769e-002 -2.71183755e-002 5.97865961e-004 2.73823109e-003
      -4.02562146e-004 -3.10073458e-002 -1.08925747e-002 3.33591811e-002
      -8.75317678e-003 -1.44955693e-002 -9.09126177e-003
      -1.04648825e-002 3.67567386e-003 -7.49747409e-003 7.56659778e-003
      3.37614156e-002 2.86209732e-002 -3.60245965e-002 1.45956723e-003
      5.45400679e-002 4.60482612e-002 -3.12180724e-004 1.42665608e-002
      3.13762538e-002 5.53797036e-002 -3.32610752e-003 -7.59385154e-002
      -8.76611173e-002 -5.15338145e-002 -1.47289522e-002 1.66974738e-002
      1.19411573e-002 -1.04349414e-002 1.90323405e-002 -2.04128493e-002
      -1.04921304e-001 -7.39552081e-002 2.70834900e-002 5.46719395e-002
      3.55971791e-002 5.51118813e-002 5.68059422e-002 3.40189785e-002
      -2.47433763e-002 -7.17254654e-002 -6.34753518e-003 4.76998053e-002
      2.52671931e-002 -1.12618115e-002 -4.93915612e-003 -1.00946724e-002
      2.62086391e-002 -1.35031147e-002 -2.64577512e-002 2.15508789e-002
      6.72014207e-002 2.38517784e-002 3.69130522e-002 3.84273529e-002
      2.57182657e-003 1.69200525e-002 -4.45449054e-002 -1.20021433e-001
      -4.01141904e-002 4.33870107e-002 4.60047834e-002 2.20409147e-002
      2.21573170e-002 1.83873158e-002 2.23016366e-002 -3.81968431e-002
      -6.31519854e-002 3.42531838e-002 5.35002090e-002 3.52009386e-002
      4.94525135e-002 3.31811793e-002 8.18452053e-003 2.59075109e-002
      -9.61413980e-003 -3.79044004e-002 9.06422641e-003 2.33550835e-002
      7.46744685e-003 1.65311154e-002 2.05094274e-002 -1.37210786e-002
      -6.88590948e-003 -2.16880161e-002 -1.45362485e-002 2.07575075e-002
      4.46312875e-002 1.76711772e-002 2.64366176e-002 3.01568378e-002
      3.27718235e-003 -3.64942430e-003 -1.31753506e-002 -6.39514402e-002
      1.17962351e-002 1.60150398e-002 3.48957442e-002 1.76906306e-002
      1.37828328e-002 -3.99268083e-002 -1.36438431e-003 -9.32235084e-003
      -4.21474129e-002 1.35584241e-002 3.30279134e-002 4.16921824e-002
      4.79691140e-002 8.15875083e-003 -2.32192017e-002 -1.38911977e-003
      9.81954578e-003 -5.72370831e-004 2.42958553e-002 1.59379859e-002
      -4.53120610e-003 1.17766829e-002 2.05198256e-003 -2.87039895e-002
      5.80609450e-003 2.75600255e-002 1.51463458e-002 1.34030189e-002
      4.46419418e-003 1.00577883e-002 1.88679956e-002 2.65101567e-002
      -2.50978097e-002 2.09251326e-002 -1.89236738e-002 -6.86023608e-002
      -6.99634803e-003 1.25502981e-002 2.62092631e-002 2.26365216e-002
      -5.30098472e-003 -3.42413448e-002 8.60930048e-003 -1.93043463e-002
      -5.23148179e-002 -4.02497593e-003 1.36969686e-002 2.54598055e-002
      2.91673802e-002 -6.17673434e-003 -3.88461687e-002 -5.90074994e-003
      1.01009300e-002 3.42591247e-003 1.24468161e-002 4.53185989e-003
      1.41118364e-002 2.28140913e-002 3.34035493e-002 -3.29829529e-002
      -1.02745332e-002 1.04890633e-002 -1.27634192e-002 1.21699823e-002
      1.90416630e-002 1.06672989e-002 3.82329896e-002 2.32812613e-002
      -1.12069519e-002 6.00794656e-003 -4.88264747e-002 -5.17949313e-002
      3.81582393e-003 2.00711424e-003 1.40839014e-002 7.36724213e-003
      6.66797580e-003 -3.46328206e-002 -2.68168636e-002 -4.02897373e-002
      -4.27357554e-002 1.56052392e-002 8.38591903e-003 -5.06302528e-003
      -1.41139664e-002 1.28411758e-003 1.41313381e-003 -3.73456739e-002
      3.44194174e-002 -4.84026223e-003 3.88724916e-003 2.28305534e-003
      -2.56667826e-002 1.03598367e-002 1.64990630e-002 -8.32589064e-003
      1.75901856e-002 3.93403918e-002 7.15091825e-003 2.17993502e-002
      8.93796980e-003 -1.24690430e-002 -2.30670813e-003 3.46955657e-002
      2.28411779e-002 5.29833287e-002 -2.56452635e-002 -4.35378775e-002
      -3.18590319e-003 -8.69039353e-003 -4.56616879e-002
      -2.29253247e-002 -7.85610918e-003 -5.82540454e-003
      -1.68072414e-002 -2.58408915e-002 -1.29052093e-002 1.71207227e-002
      -1.05859265e-002 -1.86615363e-002 -1.54992417e-002 7.72169931e-003
      -3.89639405e-004 7.05625571e-004 2.16012318e-002 7.18504481e-004
      3.01507581e-002 1.14545524e-002 7.06510991e-003 3.04551586e-003
      1.71953756e-002 8.52395967e-003 4.26708162e-002 9.96265281e-003
      -5.12267370e-003 1.77490804e-002 6.88102795e-003 1.36774033e-002
      1.33225098e-002 -6.68079033e-003 1.78269725e-002 4.13979664e-002
      -4.74991873e-002 -3.44688930e-002 5.25336992e-003 -1.91966686e-002
      -2.36642268e-002 -1.71596520e-002 1.03128469e-002 -2.66012852e-003
      -1.36397723e-002 -2.03025062e-002 -3.44276167e-002 1.24075520e-003
      -4.37535206e-003 -2.24268176e-002 1.81305800e-002 2.01278217e-002
      1.27701983e-002 -1.37277273e-002 5.05084880e-002 1.34691661e-002
      3.18996087e-002 5.66601101e-003 -1.76983420e-002 5.06350712e-004
      -4.80589317e-003 1.69624854e-003 6.64951205e-002 5.28161786e-002
      2.93628089e-002 3.73530351e-002 -2.88543431e-003 -9.03426949e-003
      7.46346964e-003 1.80675704e-002 1.33586070e-002 5.56901172e-002
      9.40036122e-003 -1.61881745e-003 4.00197506e-003 -1.04270326e-002
      -5.37137426e-002 1.11587178e-002 1.49579290e-002 5.63650578e-003
      8.55522975e-003 1.46809518e-002 -3.73954233e-003 1.08542889e-002
      -2.47310810e-002 -5.80611117e-002 -2.21981457e-003 7.92246684e-003
      -4.11762018e-003 7.29149394e-003 1.27772707e-002 -3.34052299e-003
      1.25142476e-002 -5.89187117e-003 -6.31866686e-004 1.50779057e-002
      3.34498249e-002 2.40804013e-002 3.32463458e-002 6.24807691e-003
      -3.44728045e-002 -6.17710222e-003 3.53763923e-002 5.08027561e-002
      5.12415357e-002 4.08556797e-002 2.63288822e-002 4.99096625e-002
      -2.61426568e-002 -3.28225791e-002 -7.85201602e-003 4.37273062e-004
      -1.72792748e-002 -1.11001022e-002 1.38047663e-002 3.89915123e-003
      -4.11828933e-003 -3.14653739e-002 -5.30843213e-002
      -3.45601141e-002 2.50936020e-002 1.28641864e-002 -1.16300303e-002
      -1.72180682e-003 -3.64437443e-003 6.89885672e-003 2.91234422e-002
      -1.19712381e-002 -8.42413120e-003 -5.46145675e-005 1.31300632e-002
      1.85777247e-002 1.84245862e-003 -4.49086103e-004 4.22895215e-002
      6.02886826e-002 3.56880203e-002 1.12743974e-002 9.79324430e-003
      2.01014951e-002 3.05595677e-002 1.89007930e-002 1.62757467e-002
      7.54294842e-002 -9.84706357e-003 -5.02031073e-002 -4.87322025e-002
      -2.29220707e-002 -4.04117592e-002 -5.97610362e-002
      -2.42437832e-002 -2.75055729e-002 -5.92425233e-004 2.69997586e-002
      -1.22683505e-002 -2.43430268e-002 -1.03545664e-002
      -3.87863517e-002 -5.32322042e-002 -6.08908273e-002
      -5.12921512e-002 3.53090316e-002 3.73426042e-002 2.21298244e-002
      -2.03462932e-002 -7.14724185e-003 -1.32547496e-002
      -3.90561181e-003 -1.36683332e-002 -1.89333186e-002 2.34441496e-002
      4.08562198e-002 4.05626409e-002 1.98247749e-002 4.12281230e-002
      2.00550780e-002 3.55555974e-002 2.87513472e-002 3.21370214e-002
      2.01401524e-002 2.85797305e-002 2.83737958e-004 -2.67748032e-002
      -6.06710874e-002 -6.35319576e-002 -7.84382075e-002
      -7.20778406e-002 -4.07898240e-002 2.67672390e-002 6.59328103e-002
      5.90097308e-002 2.93282662e-002 1.28254257e-002 -2.80685723e-002
      -2.41361484e-002 1.22327767e-002 4.25166935e-002 5.61046563e-002
      6.15980709e-003 2.14153212e-002 -3.33086401e-003 -1.07200583e-002
      3.50746550e-002 -6.77553797e-003 -5.01773134e-003 2.26330035e-003
      -2.59655546e-002 2.20722556e-002 1.53720435e-002 -9.30685923e-003
      -3.46260630e-002 3.40264961e-002 -6.93180272e-003 -5.24730945e-004
      4.25827969e-003 1.26848295e-002 -2.84633064e-003 1.80471074e-002
      5.35162957e-003 1.13706263e-002 2.88276970e-002 -8.82335473e-003
      -1.45220617e-002 2.18256041e-002 -5.96243283e-003 2.32486129e-002
      1.88595634e-002 1.90607812e-002 -2.07947232e-004 4.36652601e-002
      5.33830002e-003 -3.43082845e-003 2.47396212e-002 1.61286481e-002
      -1.30359195e-002 2.80722901e-002 6.59136567e-003 -4.89271209e-002
      -1.63036697e-002 -1.96996257e-002 3.02576162e-002 2.94363536e-002
      -1.46342842e-002 -2.50802506e-002 1.41875474e-002 -2.11466011e-002
      -6.09911568e-002 -1.53592210e-002 -2.13374142e-002 5.30302748e-002
      3.96883488e-002 -1.08265020e-002 -2.26895679e-002 3.09337657e-002
      2.80201286e-002 -9.45993792e-003 -1.64694656e-002 -3.43744047e-002
      3.80581878e-002 2.21218448e-002 -3.74429934e-002 -3.30220945e-002
      1.32038211e-002 -1.03346258e-002 -4.75964993e-002 -7.37110898e-003
      -3.51961963e-002 4.82895337e-002 5.98551109e-002 -2.98654288e-002
      1.05179921e-002 1.44582102e-002 -2.47417726e-002 -4.91242558e-002
      9.87302512e-003 2.19789557e-002 9.16081741e-002 7.73559809e-002
      5.71606047e-002 -5.06290048e-002 -5.68322726e-002 -4.22914401e-002
      -6.38441220e-002 3.85902599e-002 3.68688107e-002 5.98365515e-002
      3.72165777e-002 -1.49697987e-002 2.11735405e-002 -3.88996154e-002
      -1.08799540e-001 -1.23790205e-001 -4.59419601e-002
      -1.89050846e-002 6.09180890e-002 9.42798555e-002 6.46479428e-002
      -7.22693503e-002 -1.34750932e-001 -1.43977746e-001
      -1.36006922e-001 -4.03712913e-002 -7.43613113e-003 1.35619957e-002
      5.86952828e-003 -4.97329496e-002 -5.31292893e-002 -1.51174944e-002
      4.61826520e-003 9.49943624e-003 6.84693977e-002 5.01515493e-002
      2.84536704e-002 -1.95186343e-002 -5.01430556e-002 1.70476437e-002
      -2.84154844e-002 -5.31005189e-002 -1.76175814e-002 6.33813590e-002
      4.50995304e-002 1.56804752e-002 -4.63920794e-002 5.29317465e-003
      -8.21648911e-002 -1.04628876e-001 -4.50412706e-002
      -2.59149708e-002 4.31842953e-002 3.18810493e-002 -2.89822035e-002
      -9.03645605e-002 -8.76864269e-002 -3.33564868e-003
      -7.77431577e-002 -9.18856636e-002 -4.95483279e-002 2.80589554e-002
      6.19204482e-003 -6.32568821e-002 -9.33372155e-002 -2.52359565e-002
      8.49566015e-004 -1.42755970e-001 -1.77827954e-001 -1.01742923e-001
      -9.04982560e-004 3.00536584e-002 2.52723955e-002 -1.73763614e-002
      2.79785860e-002 -2.07476448e-002 -1.42347157e-001 -1.03137568e-001
      5.07351593e-004 7.44179487e-002 9.05959532e-002 8.51634741e-002
      5.87890595e-002 5.83747849e-002 5.98755777e-002 -1.20764397e-001
      -1.83031186e-001 -1.18947953e-001 -7.81271979e-003
      -1.46423634e-002 -5.92391863e-002 -5.21888472e-002 3.78827602e-002
      9.40464586e-002 -6.31660745e-002 -8.10872242e-002 -3.58857051e-003
      8.38281065e-002 8.89356285e-002 4.51306105e-002 4.76082861e-002
      1.29001573e-001 -7.28555024e-002 -1.64309278e-001 -6.76883161e-002
      5.72591741e-003 3.21841538e-002 3.44217829e-002 1.46321841e-002
      -1.70835722e-002 -1.64285004e-002 -3.62126194e-002
      -7.96738863e-002 2.79851034e-002 4.02020402e-002 4.98907939e-002
      1.61381941e-002 -5.45236887e-003 -2.73811314e-002 -1.14424592e-002
      6.54830411e-003 -7.90980458e-002 -3.30877043e-002 4.45446111e-002
      6.51396215e-002 4.21848185e-002 1.55807594e-002 1.85825827e-003
      5.32144830e-002 -1.19902417e-002 -2.37416923e-002 2.90956143e-002
      8.51563737e-002 9.20939371e-002 5.19155599e-002 3.26338969e-002
      1.01568559e-002 8.72994214e-003 -3.95308249e-002 -8.10670406e-002
      8.72199051e-003 3.33919898e-002 5.33810966e-002 2.82607507e-002
      -4.87909513e-003 -5.52132539e-002 -5.48883155e-002
      -4.57337759e-002 -7.50710741e-002 -2.33728159e-003 3.87462974e-002
      5.74492589e-002 3.76853719e-002 -7.24448648e-004 -4.76227403e-002
      -4.66622300e-002 -6.46857498e-003 -3.83497886e-002 2.08584275e-002
      5.35417311e-002 8.73845592e-002 5.13678640e-002 3.48896272e-002
      -4.25567105e-003 7.38153933e-003 9.75721236e-003 3.24602053e-003
      3.36886682e-002 5.74727505e-002 6.57523200e-002 4.01400626e-002
      3.43480408e-002 3.14346375e-003 2.07378678e-002 -5.67240044e-002
      -8.30106810e-002 -1.11250477e-002 1.67883616e-002 6.04738072e-002
      3.25145423e-002 -4.81016422e-003 -4.52752113e-002 -4.99131121e-002
      -7.32979253e-002 -8.36174339e-002 1.00215506e-002 2.55464427e-002
      4.48132791e-002 3.74969803e-002 -6.41124882e-003 -3.42108980e-002
      -3.37680280e-002 2.63553336e-002 4.03261371e-003 4.13586572e-002
      3.16671878e-002 3.64023633e-002 1.36918044e-002 1.28741274e-002
      8.28093477e-003 3.49853337e-002 3.94943543e-002 -4.56362916e-003
      3.18080559e-002 2.51042675e-002 1.38728484e-003 2.51119817e-003
      1.97093692e-002 6.69988524e-003 2.77766660e-002 -7.62958750e-002
      -6.81585446e-002 -9.88800265e-003 2.07649581e-002 1.68825425e-002
      1.73430284e-003 4.81647206e-004 -4.78236452e-002 -6.56307042e-002
      -8.37686434e-002 -3.92974541e-002 2.80527491e-002 4.82992865e-002
      1.96059346e-002 4.10889625e-004 -4.44428204e-003 -5.26201241e-002
      -8.59305710e-002 4.79761697e-002 -1.96459498e-002 1.04999747e-002
      4.75027086e-003 -1.00620408e-002 -1.62891988e-002 5.63129690e-003
      4.10608295e-003 5.40352203e-002 4.40237783e-002 1.32445116e-002
      4.86907102e-002 5.77783845e-002 2.39575747e-002 1.64324958e-002
      2.74281669e-002 1.92075735e-003 2.53516845e-002 -8.72805268e-002
      -4.94607203e-002 3.61020789e-002 4.23373841e-002 2.14018412e-002
      -1.35306856e-002 -5.44966105e-003 -5.41402958e-002
      -9.27502662e-002 -7.65622109e-002 -4.03145291e-002 4.39607352e-002
      3.39309126e-002 2.01226026e-002 1.49178654e-002 -1.08202046e-004
      -4.03228402e-002 -6.30863011e-002 2.59206328e-003 5.70138637e-003
      7.47041255e-002 9.08901244e-002 4.60444763e-002 2.75570657e-002
      2.99109481e-002 -1.58136915e-002 -9.47353430e-003 -3.43664698e-002
      -4.08048695e-003 7.01619759e-002 7.12636039e-002 4.43762802e-002
      5.46589307e-002 6.71990514e-002 -8.88069626e-003 -2.26978622e-002
      -6.41482100e-002 -2.57354099e-002 4.24161814e-002 3.83259952e-002
      3.60668004e-002 4.97130565e-002 2.51865275e-002 -2.90234666e-002
      -4.65905070e-002 -3.84006463e-002 -2.85328608e-002 3.38787176e-002
      6.12110905e-002 3.36922742e-002 5.29837012e-002 3.50170620e-002
      5.24770655e-003 -4.36275676e-002 -4.95275036e-002 -3.57820019e-002
      6.24612756e-002 7.43712112e-002 4.60111648e-002 7.43849576e-002
      6.13109209e-002 -1.62250958e-002 -1.69548150e-002 -6.39371946e-002
      -4.46837433e-002 3.61026749e-002 8.01404044e-002 7.14720711e-002
      8.21087882e-002 4.51816469e-002 -9.60136298e-003 -5.23024686e-002
      9.32114571e-003 -2.86600124e-002 2.88652238e-002 5.97342961e-002
      1.72773954e-002 2.73539219e-002 3.14952061e-002 9.22986120e-003
      3.57596949e-003 -3.85092595e-003 -2.44254787e-002 2.89286338e-002
      3.52294780e-002 1.66787617e-002 3.55330780e-002 3.79782394e-002
      4.57891962e-003 -2.44036634e-002 -2.27370281e-002 -7.23569468e-002
      2.58224178e-002 8.79349634e-002 6.20980076e-002 6.40762746e-002
      3.34176496e-002 5.20036963e-004 -6.51695393e-003 -3.38015817e-002
      -4.21580486e-002 4.50506620e-002 9.76129249e-002 7.82186612e-002
      5.65939769e-002 3.41105312e-002 2.49291933e-003 -3.54643390e-002
      1.30256324e-003 -1.33641353e-002 -5.81906503e-003 4.67166230e-002
      6.96626753e-002 6.04615547e-002 4.19107229e-002 8.45882948e-003
      -8.06974992e-003 -3.19015794e-002 -3.24825235e-002
      -2.61223651e-002 3.70537452e-002 6.94637299e-002 3.75518464e-002
      2.92343963e-002 -7.69777410e-003 -1.18370941e-002 -6.84663951e-002
      -3.92454751e-002 1.89636033e-002 8.06221664e-002 1.09509923e-001
      7.52045810e-002 5.16057909e-002 -1.79177821e-002 -6.52944371e-002
      -9.71642509e-002 -7.72209167e-002 -3.45298834e-002 2.80165486e-002
      5.61460182e-002 5.99633493e-002 3.85039188e-002 -4.34255935e-002
      -8.68284702e-002 -9.09230206e-003 -4.87815067e-002
      -3.76174748e-002 3.14707085e-002 4.01862115e-002 1.31072886e-002
      2.30461825e-002 -5.57938183e-004 2.04134006e-002 4.52181734e-002
      -7.25973258e-003 -2.20009666e-002 9.75818746e-003 1.60732698e-002
      2.32548006e-002 -2.27113254e-003 1.41902303e-003 7.10248053e-002
      -5.37896939e-002 -8.95640254e-002 -4.59087156e-002
      -8.49259202e-004 2.34055594e-002 2.42370032e-002 -2.25951662e-003
      -4.67331484e-002 -5.34927994e-002 1.07306696e-003 -3.56964655e-002
      -4.33521159e-002 -6.90959580e-003 -1.33759752e-002
      -3.16671282e-002 -3.20230126e-002 -3.98757011e-002 1.22419056e-002
      1.52800931e-002 -3.84332682e-003 -3.63112278e-002 -6.79715499e-002
      -6.29841313e-002 -7.60911554e-002 -4.06495482e-002
      -1.13867456e-002 4.30087298e-002 8.69129077e-002 6.75053820e-002
      4.81486209e-002 3.56080197e-002 -2.14571506e-003 -9.76172648e-003
      4.53929305e-002 8.62565935e-002 9.50949565e-002 -1.60550438e-002
      -4.74712476e-002 -5.95537871e-002 -6.72252700e-002
      -9.49535593e-002 -1.21376678e-001 -7.94608891e-002
      -4.47632670e-002 7.49769341e-003 8.09613094e-002 7.13049993e-002
      6.71509504e-002 5.05593233e-002 -3.27346544e-003 -2.96314899e-002
      3.12253665e-002 8.78506377e-002 7.26894736e-002 9.41789057e-003
      1.88628174e-002 1.09283468e-002 1.84549147e-003 1.61332414e-002
      -2.09033154e-002 3.51397693e-003 1.92129016e-002 1.09751299e-002
      3.47773582e-002 1.57558229e-002 2.18658382e-003 1.02340784e-002
      4.59394976e-002 -5.93168987e-003 -3.85901635e-003 1.40527403e-002
      3.24187353e-002 5.70253283e-003 2.21458189e-002 3.17728482e-002
      1.20143089e-002 2.97267642e-002 -3.96986678e-002 -1.75081044e-002
      2.68930793e-002 2.13465933e-003 -1.75684853e-003 1.80937480e-002
      -3.56048974e-003 1.01439152e-002 4.70130928e-002 -1.30705321e-002
      -2.19358057e-002 3.05018132e-003 1.16500370e-002 -4.02215421e-002
      3.34744826e-002 4.27071415e-002 -1.33556069e-003 -1.61061957e-002
      -1.06163053e-002 7.06900582e-002 4.54128571e-002 -3.68258022e-002
      -4.47983034e-002 2.47316398e-002 3.81500181e-003 -5.96847273e-002
      -4.57912087e-002 -4.73617315e-002 4.09289896e-002 6.36985973e-002
      -3.80938798e-002 -3.92073989e-002 2.78158039e-002 4.66294363e-002
      -2.36043725e-002 -3.74715589e-002 -4.61692782e-003 6.19985834e-002
      5.06515391e-002 -3.10935248e-002 -4.65045944e-002 4.46980298e-002
      3.39108035e-002 -5.52575551e-002 -6.44928217e-002 -7.10881054e-002
      1.56290475e-002 4.18432504e-002 -3.75877619e-002 5.35197966e-002
      2.86492556e-002 -3.92195582e-002 -1.02270946e-001 -6.31573275e-002
      -6.45019114e-002 2.06932481e-002 7.26564378e-002 6.87195808e-002
      -1.36544537e-002 -8.72864351e-002 -1.14501894e-001
      -1.21451236e-001 -5.19437604e-002 -7.76643381e-002
      -3.55495326e-002 -1.58589631e-002 2.20092740e-002 6.08217604e-002
      8.14156160e-002 4.02548686e-002 -5.46601303e-002 -6.71264976e-002
      -1.26597747e-001 -5.24783731e-002 2.79635768e-002 5.56165613e-002
      1.73252802e-002 -9.05667711e-003 -2.32731421e-002 -7.67178908e-002
      -4.97566275e-002 -1.22699715e-001 -1.27071723e-001
      -9.80970934e-002 -1.51025644e-003 -2.63508782e-002
      -9.61191431e-002 -5.74782714e-002 -3.90845276e-002 3.30204368e-002
      -1.00935763e-002 -4.13721390e-002 -7.22128674e-002
      -1.65141970e-002 5.51697463e-002 -4.90571558e-002 -7.36844614e-002
      -3.95311676e-002 1.48795908e-002 -1.74154844e-002 -8.66482258e-002
      -7.51140416e-002 3.58554199e-002 -2.01816354e-002 -5.99792339e-002
      -2.46192049e-002 -9.71212331e-003 3.25650685e-002 -3.49405296e-002
      -6.33623227e-002 -1.10223196e-001 -3.64012122e-002 3.33894230e-002
      -6.88517615e-002 -9.38215852e-002 -2.88423393e-002
      -9.10922699e-003 -3.64780836e-002 -9.66425836e-002
      -6.33231699e-002 4.19993997e-002 9.93337408e-002 -8.89907107e-002
      -1.56388134e-001 -1.13151886e-001 -4.02248614e-002
      -6.98863938e-002 -1.18655376e-001 -6.28941581e-002 7.56728128e-002
      1.53022677e-001 8.81564920e-005 -3.71395908e-002 1.00588277e-002
      4.94351014e-002 3.28444205e-002 -9.00388509e-003 3.72106284e-002
      1.53937548e-001 7.15801492e-002 -7.98456371e-002 -1.38643086e-001
      -9.06201378e-002 -6.48160279e-002 -1.26853004e-001
      -1.86079726e-001 -1.16913140e-001 8.98727104e-002 1.51317269e-001
      2.13382151e-002 -2.82613412e-002 2.09286977e-002 4.79145646e-002
      -9.88835935e-003 -5.61559424e-002 3.26813577e-004 1.44984797e-001
      3.89994010e-002 -5.18006869e-002 -4.01840024e-002 1.97781390e-003
      4.32078056e-002 -4.35777474e-003 -3.07483394e-002 -3.05087101e-002
      5.63928857e-002 9.89253167e-003 -1.74739175e-002 7.09253072e-004
      5.12157045e-002 7.38286823e-002 2.92553268e-002 8.43772478e-003
      -1.56189706e-002 1.87415369e-002 5.22984825e-002 -4.46259864e-002
      -4.66730818e-002 -1.47396484e-002 4.37871814e-002 4.58836788e-003
      -5.00530265e-002 -5.69675863e-002 4.30979319e-002 2.95502227e-002
      -3.83548997e-003 -7.97901861e-003 2.84083448e-002 7.83517882e-002
      5.74462451e-002 8.76106042e-003 -1.41152209e-002 5.49875945e-003
      1.74198598e-002 -9.76005383e-003 -5.46275172e-003 1.57757644e-002
      3.64661813e-002 1.59917120e-003 -1.81641697e-003 -2.18267739e-002
      -3.40106571e-003 3.31944600e-002 -7.45789288e-003 2.37140385e-003
      -1.31147599e-003 1.02091283e-002 3.64581210e-004 7.09903054e-003
      -2.44731619e-003 4.24604490e-002 1.16019268e-002 -1.67347714e-002
      1.31792203e-002 2.50345133e-002 4.31997776e-002 2.27254294e-002
      -1.16483625e-002 -1.00552542e-002 1.33921877e-002 1.22870672e-002
      -1.70420725e-002 1.86765250e-002 1.82952769e-002 2.40511689e-002
      2.37396359e-002 1.48202749e-002 2.31059548e-003 3.12614851e-002
      7.41984919e-002 -1.75075252e-002 -2.91462685e-003 -2.88141668e-002
      -2.80233435e-002 -3.24737951e-002 -1.82294175e-002
      -1.69100869e-003 8.38234797e-002 8.81932974e-002 -2.10579229e-003
      -1.09671697e-003 -4.00004089e-002 -5.12718782e-002
      -6.56512231e-002 -2.59105470e-002 -8.92790873e-003 8.87692422e-002
      5.42393588e-002 -1.67431105e-002 -1.13584986e-002 -1.42656853e-002
      -1.39438016e-002 -8.04362725e-003 1.37112308e-002 1.33390853e-003
      8.02557990e-002 7.57761374e-002 -2.09469963e-002 -2.03362722e-002
      -5.81905805e-002 -3.21617797e-002 -2.99946964e-002
      -1.59760676e-002 -2.88167596e-003 8.33275095e-002 1.06644951e-001
      -1.32169537e-002 -1.75085757e-002 -6.54016435e-002
      -9.86496136e-002 -9.01325792e-002 -4.21671942e-002
      -3.66405845e-002 9.69972461e-002 1.03039466e-001 -8.59018695e-003
      3.08900308e-002 -1.25630936e-002 -5.63831553e-002 -2.73326822e-002
      -8.47070292e-003 -5.30471373e-003 1.07191093e-001 8.85384530e-002
      -2.77775209e-002 -2.75599062e-002 -8.84032249e-002
      -8.81302059e-002 -6.35893270e-002 -2.74002887e-002
      -2.76989155e-002 8.15764517e-002 9.34824422e-002 -1.90610555e-003
      8.96590855e-003 -2.44448967e-002 -4.46724370e-002 -2.38311384e-002
      2.74816272e-003 2.45273430e-002 9.91695151e-002 4.76760231e-002
      -1.22651421e-002 3.29903625e-002 3.05332895e-002 -7.89364614e-003
      -1.00827301e-002 4.19437233e-003 -2.55664121e-002 3.89770381e-002
      -6.61502825e-003 -4.81828973e-002 2.39001270e-002 2.87491083e-002
      1.09752147e-002 7.69738480e-003 1.70384087e-002 -3.79982330e-002
      -4.33149002e-003 2.75047328e-002 -2.02511195e-002 2.60927714e-002
      1.26663363e-002 -5.47333434e-003 7.89187010e-003 -8.30039661e-003
      5.12164319e-003 6.03832193e-002 -1.77901727e-003 -4.36683260e-002
      2.11426988e-002 2.16383543e-002 1.38731403e-002 2.82566044e-002
      -9.11621377e-003 -4.77084853e-002 -9.19287652e-003 8.15013703e-003
      -5.40904403e-002 3.56044397e-002 4.54022028e-002 3.81681621e-002
      5.86973615e-002 4.76060882e-002 -2.50587687e-002 3.23754433e-003
      -4.60426137e-002 -7.98330233e-002 1.63910049e-003 4.56361994e-002
      5.79829998e-002 6.19169623e-002 2.56596413e-002 -4.98049073e-002
      -4.46957015e-002 9.99490637e-003 -4.02750298e-002 3.63885127e-002
      4.92610969e-002 4.20526303e-002 8.70297179e-002 4.19588275e-002
      -3.28065939e-002 4.87021316e-004 -5.22201024e-002 -4.82595004e-002
      2.71129999e-002 4.29804623e-002 5.07698730e-002 7.60224089e-002
      1.06043909e-002 -7.10865408e-002 -5.00253364e-002 -1.23351263e-002
      -6.75535128e-002 2.73823515e-002 6.48810491e-002 4.95507494e-002
      6.07634075e-002 4.17838506e-002 -3.04635111e-002 2.18363060e-003
      -4.27379832e-002 -5.00260852e-002 5.17498702e-002 7.27260485e-002
      6.40661269e-002 3.25679258e-002 2.81813368e-002 -3.71876694e-002
      -2.26268191e-002 -1.75069459e-002 -2.17217281e-002 5.48510179e-002
      7.11256042e-002 5.61383180e-002 7.95841217e-002 3.60678285e-002
      -7.01877177e-002 -3.19461487e-002 -5.68466485e-002
      -3.21135446e-002 5.22448644e-002 5.58956154e-002 6.96544573e-002
      6.90120086e-002 5.16991988e-002 -4.71242890e-002 -6.12844378e-002
      -4.39412631e-002 -3.04759759e-002 3.41370292e-002 7.78378174e-002
      9.83634219e-002 6.63389340e-002 5.19303754e-002 -1.43338758e-002
      -5.48574515e-002 -6.96741045e-002 -6.29588887e-002
      -1.39953084e-002 2.71472428e-002 6.57417998e-002 6.79009333e-002
      3.46423760e-002 -4.48404625e-002 -7.61167184e-002 -6.79422691e-002
      -2.03932561e-002 5.97067103e-002 6.72732815e-002 1.19252332e-001
      9.43344980e-002 5.38285598e-002 -1.24901021e-002 -6.25554025e-002
      -9.89345461e-002 -5.92505671e-002 1.78855602e-002 5.99318482e-002
      8.91308635e-002 7.48898834e-002 3.33095156e-002 -6.34613112e-002
      -9.54324901e-002 -1.07014980e-002 -3.55292410e-002
      -1.25724012e-002 5.15787443e-003 4.71668877e-002 2.14637090e-002
      5.50279394e-003 -2.97603812e-002 -2.94618048e-002 3.79029587e-002
      -1.80422124e-002 -2.20452622e-002 -1.41939649e-003
      -1.22913895e-002 -3.27899121e-002 -3.52837034e-002
      -1.26999607e-002 2.95401923e-002 -4.12123054e-002 -2.94749234e-002
      -2.95632344e-004 2.33540386e-002 4.56960872e-002 1.21628409e-002
      -7.04238005e-003 -6.12167753e-002 -3.80916297e-002 2.71980297e-002
      -2.40222514e-002 -2.12234482e-002 -2.04212423e-002
      -1.03109479e-002 2.10253103e-003 -2.05481742e-002 -2.19859518e-002
      2.90181860e-002 1.26313213e-002 -2.74807084e-002 -5.18785380e-002
      -8.41430947e-002 -1.06785454e-001 -1.15269437e-001
      -5.48470840e-002 -1.53089082e-002 2.27420665e-002 1.05656765e-001
      7.66208470e-002 4.73510697e-002 3.36377360e-002 7.18449894e-003
      -2.62485025e-003 2.38899253e-002 7.86969811e-002 8.86862129e-002
      3.57095571e-003 -3.53989452e-002 -6.17871359e-002 -1.30377144e-001
      -9.71348733e-002 -6.68500587e-002 -4.90158871e-002
      -2.08721645e-002 1.55323753e-002 7.77100623e-002 8.69422704e-002
      2.69486681e-002 -1.71909034e-002 -9.12970677e-003 3.24189328e-002
      6.16407543e-002 9.17512998e-002 9.24958959e-002 2.66760848e-002
      3.08658332e-002 -5.47868083e-004 -1.07872277e-003 2.89233420e-002
      -2.65897550e-002 -2.06579342e-002 2.48491261e-002 3.78442812e-003
      1.83429439e-002 2.23429929e-002 -2.33950536e-003 1.41289541e-002
      4.76304404e-002 2.64982285e-004 -8.29437189e-003 6.57378417e-003
      1.12486724e-002 2.57925340e-003 3.81630324e-002 -2.56433785e-002
      -3.28756459e-002 9.31002572e-003 -1.25584044e-002 -8.35591462e-003
      2.15725265e-002 6.80384832e-003 4.16101776e-002 2.43128948e-002
      -1.62230749e-002 2.16248399e-003 3.55163030e-002 2.94780446e-004
      -1.69720128e-002 5.88556752e-003 2.22767349e-002 2.05227034e-003
      3.56609896e-002 4.24918979e-002 -1.74431596e-002 -4.93003502e-002
      -3.50945368e-002 2.10199468e-002 2.81952862e-002 6.32624282e-003
      -1.22942077e-002 5.61809428e-002 4.94287834e-002 -2.25902945e-002
      -3.56912911e-002 -6.74344972e-002 -1.09799877e-002
      -6.14107063e-004 -3.81556526e-002 -2.84759328e-003 2.31021438e-002
      3.07657663e-002 -1.15820440e-002 -1.88007187e-002 -5.93101680e-002
      8.45496077e-003 2.46071834e-002 -1.37372781e-002 -1.52223613e-002
      2.51504611e-002 6.22266792e-002 6.85683265e-003 -1.98587850e-002
      -5.59166782e-002 -1.80273764e-002 1.65525614e-003 -3.54539566e-002
      5.23872897e-002 8.65845010e-002 6.74592704e-002 -2.64197285e-003
      -4.89140488e-002 -1.18242770e-001 -8.54981989e-002
      -3.88684161e-002 1.33606941e-002 -2.48736534e-002 1.02687189e-002
      2.59245317e-002 -4.59979847e-003 -1.57312136e-002 -1.25959963e-001
      -1.45940751e-001 -1.50875524e-001 -5.58202639e-002 4.82304208e-002
      7.96878114e-002 8.88509825e-002 4.64228019e-002 2.89535336e-003
      -5.03439680e-002 -4.13394980e-002 -1.13625098e-002
      -3.80415027e-003 -1.75756887e-002 3.44912522e-002 5.00770621e-002
      2.02639438e-002 7.17938319e-003 -5.82767241e-002 -5.65416217e-002
      -6.03782721e-002 -4.88250628e-002 -5.73865436e-002
      -4.92076315e-002 1.77967583e-003 3.39284278e-002 5.29641472e-002
      -2.75836829e-002 -4.84930910e-002 -1.12614445e-001
      -7.24100545e-002 -2.06389185e-002 -7.10374787e-002
      -4.93343137e-002 2.21294891e-002 2.53682993e-002 -7.28183687e-002
      -1.09250352e-001 -8.83301720e-002 -3.43093742e-003
      -4.18077484e-002 -1.32708782e-002 2.17209943e-002 3.87360938e-002
      5.28972037e-002 3.62340687e-003 -1.42267374e-002 -2.61295140e-002
      -4.72270809e-002 -1.31804282e-002 -3.19889300e-002 1.34845288e-003
      5.24422713e-002 4.80829924e-002 -2.66624466e-002 -6.86401576e-002
      -2.35365592e-002 6.43112231e-004 6.49102554e-002 -2.79120635e-002
      -5.29580861e-002 -9.74179525e-003 2.30798288e-003 -1.26155332e-001
      -2.04993427e-001 -1.41246736e-001 7.60092586e-002 1.35218754e-001
      4.44284678e-002 1.82642862e-002 6.79301471e-002 8.74642655e-002
      -1.68538168e-002 -9.73072052e-002 -8.21223557e-002 6.83987290e-002
      2.93394085e-002 -3.80210718e-003 1.08597241e-002 5.34700975e-002
      1.37573099e-002 -8.78228471e-002 -1.78982288e-001 -1.35766506e-001
      -8.07348825e-003 6.20347671e-002 5.41014634e-002 6.26230314e-002
      8.75010341e-002 8.64156634e-002 -8.76336452e-003 -1.09967858e-001
      -1.32607073e-001 -2.50890795e-002 5.54794036e-002 -1.47009073e-002
      -4.85661533e-003 1.58654526e-002 7.14302287e-002 3.41991931e-002
      -3.84016968e-002 -8.02338645e-002 9.66520235e-003 2.25388836e-002
      4.19402844e-004 4.04499322e-002 6.45228177e-002 1.22986376e-001
      8.76665190e-002 4.67845313e-002 8.78687575e-003 2.16504522e-002
      -2.98289023e-002 -1.71014406e-002 1.07799619e-002 4.09598425e-002
      3.82044725e-002 2.91621475e-003 -7.16442913e-002 -1.61617354e-001
      -1.00235045e-001 -3.63896042e-002 -3.12302951e-002 1.50736002e-002
      5.60199171e-002 8.38828981e-002 6.19358011e-002 2.58659367e-002
      -6.29084036e-002 -4.90864590e-002 1.09955473e-002 -1.97601840e-002
      4.04940248e-002 6.72181472e-002 8.72044638e-002 4.70855162e-002
      1.84426960e-002 -3.04745138e-002 8.00888799e-003 7.94562418e-003
      -2.22465582e-002 4.91369627e-002 6.13590889e-002 5.94643280e-002
      6.69594854e-002 3.32641825e-002 5.27950004e-004 1.35955913e-002
      -5.74850664e-002 -8.20025206e-002 -4.11730586e-003 3.77011895e-002
      5.65898567e-002 4.70287576e-002 1.26427878e-002 -6.34033382e-002
      -2.35013142e-002 -4.39997986e-002 -5.53108081e-002 1.76288728e-002
      4.09900025e-002 3.05691827e-002 5.08320704e-002 1.31903654e-002
      -6.01189435e-002 -3.97234187e-002 3.11830863e-002 -8.52964353e-003
      2.69600339e-002 2.12046057e-002 4.22133803e-002 4.12207693e-002
      3.23592722e-002 -4.44164826e-003 2.99803857e-002 3.86217944e-002
      -5.45673817e-003 2.40700021e-002 1.26322769e-002 3.13960388e-002
      3.35731171e-002 2.48815399e-002 -1.92234553e-002 3.89184058e-002
      -4.31252234e-002 -3.94152850e-002 1.14893690e-002 7.80425780e-003
      3.02117970e-002 2.92934142e-002 -4.43897676e-003 -9.75033492e-002
      -5.35001308e-002 -2.76041310e-002 -2.58642621e-002
      -1.07812472e-002 1.35636516e-002 3.25263441e-002 3.69657651e-002
      -9.97572206e-004 -9.75350738e-002 -5.63191362e-002 6.23981990e-002
      -3.21968715e-003 1.70895476e-002 -5.01704449e-003 2.60680858e-002
      3.98088321e-002 2.47552134e-002 -1.64939910e-002 3.61875817e-002
      3.94557938e-002 1.27487164e-002 4.24227677e-002 2.73759868e-002
      1.68180317e-002 5.60828559e-002 5.18227704e-002 3.71200219e-002
      5.07303402e-002 -5.64183928e-002 -5.21200597e-002 -1.66711286e-002
      -1.22828525e-003 4.86642532e-002 5.67653067e-002 4.31673136e-003
      -7.21506625e-002 -7.51959309e-002 -8.20265710e-002
      -5.38175814e-002 -4.42554895e-003 3.86385922e-003 1.80595461e-002
      5.90088740e-002 2.63921842e-002 -5.15926816e-002 -8.06261972e-002
      1.19960392e-002 -1.18327104e-002 3.66426036e-002 3.61376256e-002
      4.16820422e-002 6.64462075e-002 5.28364666e-002 2.58971918e-002
      4.14804034e-002 -8.29282496e-003 -5.93494531e-003 5.88228516e-002
      4.96178120e-002 3.86387855e-002 5.96311875e-002 4.09071743e-002
      -2.39632063e-005 -6.87794178e-004 -7.43546188e-002
      -5.76254576e-002 -1.20756207e-002 -1.23092206e-003
      -7.24038621e-003 4.72463667e-002 4.02929746e-002 -5.23289628e-002
      -6.99205548e-002 -2.21372936e-002 -3.06053441e-002 4.82390868e-003
      2.61982232e-002 -8.90286174e-003 3.90234105e-002 4.05487902e-002
      -2.64109615e-002 -4.61957268e-002 -4.92866989e-003
      -2.34793704e-002 3.38252150e-002 5.82214743e-002 4.45328280e-002
      6.37324601e-002 3.77157852e-002 -2.19268538e-002 -3.19119655e-002
      -4.10655402e-002 -5.37435245e-003 5.36940619e-002 7.35579357e-002
      7.81335086e-002 7.76088536e-002 2.51180064e-002 -4.37177941e-002
      -6.09671958e-002 -1.13130733e-002 -2.56438777e-002 1.39921214e-002
      3.59172560e-002 1.55071579e-002 3.26436162e-002 5.09584099e-002
      -2.02597026e-002 -3.75823639e-002 -1.95837263e-002 1.33152250e-002
      3.84834819e-002 6.51852489e-002 5.03038391e-002 6.37783185e-002
      4.81600352e-002 -3.59800365e-003 -2.44419817e-002 -2.40077861e-002
      1.74265052e-003 4.61402126e-002 6.89295232e-002 7.03388378e-002
      7.78861642e-002 3.03975586e-002 -6.99799508e-002 -3.52105871e-002
      -5.07234000e-002 -9.37240664e-003 3.51750590e-002 5.77797256e-002
      8.53204206e-002 8.56054798e-002 4.38515469e-002 -4.51762192e-002
      -4.82412279e-002 5.38935652e-003 2.02616192e-002 5.22352420e-002
      3.61135341e-002 3.27790566e-002 5.93662001e-002 4.04378362e-002
      6.48397161e-003 9.99824610e-003 -2.49695070e-002 1.60025470e-002
      4.76303436e-002 3.25091779e-002 6.82715140e-003 2.65438389e-002
      3.45349275e-002 2.59803445e-003 -9.65748634e-003 -5.35212457e-002
      -1.76816862e-002 5.28139099e-002 6.89270943e-002 1.18691564e-001
      8.27165246e-002 3.21054533e-002 -4.39804010e-002 -7.56674111e-002
      -8.81940201e-002 -3.50414962e-002 3.50267999e-002 7.68220052e-002
      7.91916624e-002 3.95309106e-002 -7.51201250e-003 -7.69638866e-002
      -8.91451612e-002 -4.32180753e-003 1.97030231e-002 5.60615361e-002
      5.68801649e-002 6.11407235e-002 2.82123405e-002 9.44753364e-003
      -2.09956849e-003 -7.35544832e-003 -1.08440884e-003 1.47750359e-002
      2.93790307e-002 4.77071106e-002 3.21165435e-002 1.30872959e-002
      -2.59346105e-002 -3.05954609e-002 -3.86905707e-002
      -1.88120157e-002 -2.55353674e-002 -6.81710243e-003 3.50346006e-002
      2.86768340e-002 -3.13043565e-004 -3.44706699e-002 -9.01276097e-002
      -4.33272757e-002 3.38225998e-002 -2.22531240e-002 -2.34447233e-002
      -1.86849292e-002 -8.30279198e-003 -1.71889197e-002
      -5.69468290e-002 -4.91202176e-002 -2.55889114e-004 3.01014204e-002
      3.91020160e-003 7.97444861e-003 1.13483658e-003 1.13002174e-002
      6.83407579e-003 -3.06426100e-002 -4.44836505e-002 -7.67990854e-003
      7.93160424e-002 1.89421978e-002 -3.68174072e-003 2.72572157e-003
      5.52380783e-003 -2.37277010e-003 -2.71352082e-002 1.47057042e-004
      5.29128164e-002 6.76535303e-003 -4.67411131e-002 -6.95907921e-002
      -1.33197248e-001 -1.03416406e-001 -6.93012848e-002
      -6.86477944e-002 -3.65821309e-002 7.78328627e-003 6.53452203e-002
      6.21284246e-002 2.80432366e-002 -4.53009568e-002 -1.31775858e-002
      4.66131940e-002 6.76492602e-002 7.13931248e-002 8.53147805e-002
      2.79664062e-002 -5.60433092e-003 -5.13450876e-002 -9.11272988e-002
      -7.25120381e-002 -5.15714921e-002 -4.71618958e-002
      -9.00675356e-003 3.24331485e-002 6.92673177e-002 6.81469440e-002
      3.13715525e-002 -7.00540189e-003 1.06615853e-002 5.15004471e-002
      5.82258292e-002 8.66866335e-002 9.55801085e-002 5.85799199e-003
      1.70523599e-002 -1.35795819e-002 -4.55868728e-002 2.17325781e-002
      -3.04010184e-003 8.71861354e-003 1.92519035e-002 1.88918263e-002
      4.02668267e-002 1.17088454e-002 -1.07098809e-002 1.03888744e-002
      5.17299809e-002 1.25351513e-003 -2.07588822e-002 1.11035220e-002
      3.04576382e-002 -4.07109782e-003 3.18653835e-003 2.54168012e-003
      -1.91278048e-002 2.93706357e-002 -6.57714903e-003 -5.45037584e-003
      2.66646966e-002 1.10056065e-002 1.95718780e-002 9.35178529e-003
      -8.18399712e-003 2.34435196e-003 4.45409343e-002 1.56548768e-002
      -2.67395508e-002 1.58812795e-002 2.41354499e-002 -2.09904928e-002
      1.97105072e-002 1.59552358e-002 -1.97364967e-002 2.66825408e-003
      -4.74970862e-002 1.62111837e-002 4.03201692e-002 -6.99863862e-003
      -2.74448916e-002 4.72752843e-003 3.49031501e-002 1.66787878e-002
      2.41974592e-002 -1.11913327e-002 -1.10811554e-003 1.61680728e-002
      -3.05092148e-002 -3.36699076e-002 1.27212657e-002 1.90476906e-002
      -4.44202386e-002 -3.07317059e-002 -6.35496303e-002 1.30522009e-002
      8.27789772e-003 -3.83021235e-002 -3.87725718e-002 7.86642637e-003
      1.18595315e-002 -2.12102514e-002 2.15798877e-002 -4.56163250e-002
      1.22042177e-002 2.23279223e-002 -4.50152345e-002 -1.39265796e-002
      3.79537269e-002 4.42531817e-002 5.55945560e-004 1.65411830e-002
      -1.50052914e-002 -3.34260836e-002 -2.65124603e-004
      -3.01514026e-002 -3.31868567e-002 2.60041542e-002 2.48081926e-002
      -1.11520542e-002 -4.80746385e-003 -2.86159385e-002
      -3.91660854e-002 -1.25502031e-002 -6.03855103e-002
      -3.87462825e-002 6.28957478e-003 1.91094521e-002 -1.93051863e-002
      1.61154382e-002 -9.34293028e-003 1.73690673e-002 3.04908995e-002
      -1.69272497e-002 -2.27748081e-002 -6.82786573e-003
      -1.50161684e-002 -4.91520315e-002 -2.54073292e-002
      -2.43792050e-002 8.96968599e-003 2.29124073e-002 3.59858060e-003
      -2.50872765e-002 -1.92115605e-002 -1.65307075e-002
      -1.36480257e-002 -9.54543520e-003 -3.64735685e-002
      -1.56014226e-002 -5.16302185e-003 -1.67976879e-002 5.39996708e-003
      -2.71817707e-002 -2.91133262e-002 5.62462956e-003 6.96538296e-003
      -2.67896112e-002 -2.37410069e-002 -1.40526192e-002 1.09999059e-002
      -8.48019216e-003 -7.03823101e-003 -1.33820297e-002
      -2.90366802e-002 -1.37864826e-002 -5.80090061e-002
      -4.54354286e-003 1.64506175e-002 1.22497296e-002 1.72562711e-002
      -1.72092840e-002 -8.98200087e-003 3.05189588e-003 7.63656991e-003
      -2.87404526e-002 -5.99976163e-003 1.66803487e-002 2.62964293e-002
      8.07301141e-003 -1.65866390e-002 -2.69621424e-002 8.50837957e-003
      -7.08828738e-004 -3.80533077e-002 -7.86499903e-002
      -6.81142807e-002 1.61606329e-003 2.08019856e-002 1.79139394e-002
      1.68163683e-002 2.32583806e-002 5.81484847e-002 1.09380316e-002
      -5.96648939e-002 -1.15349710e-001 -3.35124806e-002 3.18383574e-002
      9.36299213e-004 1.13968886e-002 2.97094695e-003 -3.20727378e-003
      -2.79570906e-003 2.24779360e-003 6.28997292e-003 3.29578593e-002
      4.87778001e-002 1.77353323e-002 3.48945558e-002 2.00097878e-002
      4.30606790e-002 4.18720618e-002 1.98863186e-002 -3.06644086e-002
      7.49386009e-003 -5.00930194e-003 -4.98790340e-003 9.32841096e-003
      2.73704845e-002 5.95498309e-002 3.26899476e-002 -3.94006483e-002
      -1.36749670e-001 -8.11198503e-002 1.23853218e-002 -1.36572646e-003
      3.15788873e-002 6.52452111e-002 8.33409280e-002 6.29503876e-002
      9.67716426e-003 -8.81280750e-002 -4.67659011e-002 2.02966314e-002
      -6.23928243e-003 1.44434283e-002 9.61168017e-003 3.40464488e-002
      6.06684573e-002 -3.76296882e-003 -6.62682354e-002 -4.79271561e-002
      1.87817458e-002 6.36106450e-003 4.93472144e-002 5.23480177e-002
      6.89094588e-002 9.00681317e-002 1.85789578e-002 -3.19059491e-002
      -3.68510000e-002 7.66434846e-003 -3.88549566e-002 2.01646145e-002
      3.56089920e-002 5.13857678e-002 4.35176380e-002 1.11216679e-002
      -5.81761338e-002 -1.23719834e-002 2.08134148e-002 -2.30428111e-002
      1.78872831e-002 3.44811417e-002 8.26255046e-003 3.05574127e-002
      2.33517252e-002 -2.56232731e-002 6.73902640e-003 -3.81820393e-003
      -2.04450004e-002 3.74915935e-002 2.99040750e-002 3.64873707e-002
      4.64509353e-002 1.38739534e-002 -4.68103290e-002 -2.01660320e-002
      -1.07597914e-002 -1.33004570e-002 4.23158519e-002 3.32298726e-002
      1.93811336e-003 2.44853012e-002 2.54627299e-002 -5.22297667e-003
      -1.75999571e-002 1.52952236e-003 -2.52128858e-002 1.24643538e-002
      -2.18313606e-003 -1.15808863e-002 1.31479297e-002 4.06352198e-003
      -7.28423521e-002 -3.04040685e-002 1.91401353e-003 -2.13422924e-002
      5.29818004e-003 2.93714441e-002 2.44690776e-002 2.28837077e-002
      -1.34355424e-003 -6.77747205e-002 -2.06554327e-002 1.51894032e-003
      -2.60786638e-002 1.23007214e-002 6.34744391e-003 -1.43530238e-002
      6.18517492e-003 2.09571905e-002 -4.82835853e-003 -8.44893884e-003
      1.99831650e-002 -1.05561689e-002 1.65464655e-002 2.68741660e-002
      1.98304839e-002 3.20220217e-002 2.09939964e-002 -6.79338817e-003
      -1.19688213e-002 -6.27166266e-003 -2.70709600e-002
      -1.47162881e-002 1.67730805e-002 3.88834663e-002 1.95593126e-002
      -1.38004543e-002 -7.29810074e-002 -4.31399010e-002
      -2.75995750e-002 -1.99509058e-002 -3.16759013e-002
      -3.40356492e-003 6.48390362e-003 1.72720123e-002 -1.42889516e-002
      -6.86408952e-002 -2.51786299e-002 5.60245151e-003 -1.47687830e-002
      2.23693624e-003 2.44146287e-002 3.80865782e-002 1.94607675e-002
      2.10040179e-003 -2.09094193e-002 -3.08610545e-003 1.15798488e-002
      -1.22907925e-002 -2.27246173e-002 1.31045394e-002 2.29728501e-003
      2.27257255e-002 8.39282852e-003 -3.77548970e-002 -1.93101805e-004
      -7.65337190e-003 -1.24819232e-002 -3.07421517e-002
      -2.92349830e-002 -5.12018651e-002 3.27022700e-003 2.51704501e-003
      -4.94139865e-002 -1.18195415e-002 3.03336363e-002 -1.34025700e-003
      -3.88069404e-003 3.63828964e-003 -2.71591563e-002 -2.84154643e-003
      2.20474172e-002 -2.06267767e-004 -2.28445441e-003 2.56053116e-002
      7.44390721e-003 -4.46960144e-003 -1.82659309e-002 -4.61032540e-002
      1.73488772e-003 1.07468581e-002 -4.00146423e-003 2.52331663e-002
      5.77406809e-002 4.22770977e-002 4.73997109e-002 1.52682355e-002
      -1.75296627e-002 1.71735901e-002 2.64829285e-002 1.92974396e-002
      4.40592989e-002 2.68646404e-002 6.31614996e-004 -1.95286717e-004
      -1.06010595e-002 -3.41992080e-002 -1.17227100e-002 3.05860136e-002
      -2.22500637e-002 -2.54717115e-002 1.72898322e-002 2.46311426e-002
      1.04444791e-002 7.72371935e-003 -1.12408176e-002 1.11371372e-002
      2.72501577e-002 -8.88895988e-003 -1.72532944e-003 4.41992730e-002
      1.67206936e-002 4.36549708e-002 2.39995755e-002 -4.54339152e-003
      5.48343593e-003 3.40410694e-002 8.02735146e-003 1.44895511e-002
      3.04514430e-002 3.48194763e-002 2.72754040e-002 2.09816415e-002
      5.36776707e-003 2.70917593e-003 5.17630577e-002 2.66930647e-002
      2.70544924e-002 2.24406403e-002 6.40874496e-003 1.20748878e-002
      -3.85045912e-003 -2.96742022e-002 -4.30591084e-004 4.45740484e-003
      -3.33059626e-003 7.97886215e-003 -1.41497049e-002 -2.27979617e-003
      1.50455553e-002 -6.34373678e-003 -3.45544592e-002 -2.67714579e-002
      1.77898929e-002 -2.81207939e-003 -2.52722530e-003 5.87663017e-002
      2.38333214e-002 3.02072857e-002 1.15134977e-002 -3.92245944e-004
      2.39436631e-003 2.60418523e-002 1.09393001e-002 6.19940199e-002
      4.41302620e-002 1.93653628e-002 4.34754752e-002 1.89462341e-002
      5.22020552e-003 -1.08458530e-002 1.91831570e-002 2.43410487e-002
      3.76414806e-002 -1.72537360e-002 1.71539176e-003 2.05225479e-002
      2.21258472e-003 8.43648985e-003 -9.47074126e-003 -4.77123633e-003
      -1.60197057e-002 -1.71896871e-002 -1.36456604e-003
      -1.52742984e-002 -1.15869725e-002 -1.12237399e-002 2.44573544e-004
      -6.15489343e-003 -4.14262377e-002 -3.14598083e-002
      -1.55437663e-002 3.23417298e-002 1.49200605e-002 3.42299044e-002
      2.27912851e-002 2.01767106e-002 -6.96467003e-003 1.57593694e-002
      1.75593589e-002 3.13740112e-002 4.25502434e-002 1.10959448e-003
      2.18892880e-002 3.06396205e-002 1.64663680e-002 1.00522721e-002
      -1.36435078e-002 7.06280675e-003 3.24120633e-002 4.77384543e-004
      -4.43594232e-002 -4.68410924e-002 -4.09028456e-002
      -4.46865968e-002 -3.23289298e-002 -4.64881696e-002
      -3.66118625e-002 4.83151479e-003 2.22808905e-002 -3.50085609e-002
      -5.18734790e-002 -3.47929224e-002 5.34741953e-003 -2.24267915e-002
      -1.95741598e-002 -1.05236927e-002 2.30629575e-002 4.67299893e-002
      -1.92785561e-002 -1.81542803e-002 1.77956596e-002 -5.45283919e-003
      -6.88474439e-003 1.62409712e-003 -2.48662604e-004 5.50436974e-002
      3.44795696e-002 7.49799237e-003 -8.99065708e-005 3.48836333e-002
      5.17426133e-002 3.71496305e-002 3.89626548e-002 3.92921045e-002
      3.63143384e-002 -8.87032785e-003 -2.05198471e-002 -6.81861416e-002
      -9.17788222e-002 -3.13711390e-002 -3.89946811e-002
      -4.54847738e-002 -1.51282912e-002 6.05459092e-003 2.51999386e-002
      3.39554511e-002 5.28258178e-003 -8.55494197e-003 2.56980564e-002
      3.60820033e-002 1.73338428e-002 5.29039577e-002 6.00883551e-002
      -3.90425255e-003 -1.65353511e-002 -2.20349804e-002
      -1.79111045e-002 1.39721371e-002 -3.83492839e-003 -2.34676413e-002
      1.08344834e-002 4.08602459e-003 1.95903890e-002 3.69740129e-002
      3.44180726e-002 3.95072587e-002 3.90939303e-002 2.67413687e-002
      3.24239838e-003 3.27774994e-002 2.98180413e-002 -2.48857439e-002
      4.41084383e-003 -6.08806638e-003 4.30374080e-003 5.23869358e-002
      1.53090656e-002 -9.58357099e-003 2.91924961e-002 -6.03491731e-004
      2.56172437e-002 1.92394964e-002 -4.94344486e-003 1.18711153e-002
      6.45622760e-002 1.66298095e-002 -5.22184186e-003 3.06222215e-002
      2.78491881e-002 -3.48562784e-002 1.00085493e-002 -8.33141338e-003
      1.05226440e-002 4.83707525e-002 -3.02304216e-002 -2.70730909e-002
      2.36591883e-002 -2.00946331e-002 1.76378172e-002 1.34745417e-002
      -4.46127309e-003 -2.31865468e-003 5.66372499e-002 -2.34801229e-003
      -1.09575186e-002 3.84000875e-002 2.22141445e-002 -1.09656844e-002
      4.37719859e-002 4.35793735e-002 -2.38785837e-002 -3.04422881e-002
      -6.39672652e-002 5.99716743e-003 2.31165979e-002 -1.07122594e-002
      -1.67054832e-002 3.88852060e-002 3.33268382e-002 -1.60809178e-002
      -5.06515754e-003 -4.83797565e-002 1.02142468e-002 3.76489982e-002
      -1.18435537e-002 -1.86525919e-002 3.22981700e-002 4.80932258e-002
      -2.20324565e-002 1.36911748e-002 -9.06395391e-002 -1.77629162e-002
      1.83801949e-002 -5.52579574e-003 -5.44806570e-002 1.78438798e-002
      4.73334454e-002 -1.10810194e-002 3.81356440e-002 -5.15956394e-002
      -7.62198213e-003 2.15723664e-002 -4.99014333e-002 -1.46249998e-002
      1.99669581e-002 1.86345465e-002 -1.25888838e-002 1.37893781e-002
      -2.23430768e-002 7.96908420e-003 4.33048978e-002 8.64363648e-003
      -1.48576479e-002 7.73771200e-003 -7.71648623e-003 -3.97123471e-002
      -3.16270292e-002 -4.34190445e-002 -2.17198627e-003 3.72821949e-002
      4.21348307e-003 -5.26853018e-002 6.21132902e-004 1.06251240e-002
      -2.48607341e-002 4.47310470e-002 -3.80305350e-002 -1.94568019e-002
      1.54096698e-002 -3.37200835e-002 -4.71450835e-002 -2.48732641e-002
      -2.04861108e-002 -4.05688137e-002 2.32815556e-002 -7.98330009e-002
      -3.48324366e-002 1.58672500e-002 -2.72532050e-002 5.77457598e-004
      -9.72924009e-003 8.28840863e-003 -2.14810874e-002 5.13081905e-003
      -5.97509407e-002 -1.30537953e-002 2.35860888e-002 2.08520740e-002
      1.99292452e-004 -3.00074238e-002 1.03445947e-002 -9.54318792e-003
      1.36742722e-002 -9.19930078e-003 3.65848746e-003 3.27407271e-002
      2.32237745e-002 -5.29422984e-002 -3.91598754e-002 -6.67584129e-003
      -4.81943376e-002 5.90982847e-002 -6.52313977e-002 -2.26239730e-002
      6.81134081e-003 -2.11109594e-002 -4.43998091e-002 -4.68132086e-002
      -3.09735984e-002 -3.80324200e-002 7.88852498e-002 -4.45785839e-003
      -2.32289196e-003 5.32683078e-003 -1.16473595e-002 9.98064224e-003
      -2.12082341e-002 -6.55108131e-003 -1.79040730e-002
      -1.82289314e-002 -2.62711234e-002 -3.32901767e-003 4.51547606e-003
      1.08851427e-002 3.67373228e-002 7.88990594e-003 2.21499763e-002
      4.12298599e-003 2.95047974e-003 1.61544550e-002 4.39559631e-002
      3.84892449e-002 4.23362777e-002 -2.82021668e-002 -3.71054374e-002
      -2.37029903e-002 -3.90562154e-002 5.07150218e-002 -1.28249330e-002
      1.62871392e-003 -2.43278220e-002 -1.59302298e-002 3.43085057e-003
      -1.24147991e-002 2.69016754e-002 -1.74182113e-002 6.29588813e-002
      -2.48755957e-003 2.22783647e-002 6.06519217e-003 2.76341732e-003
      -7.70688197e-003 -5.37626818e-002 -2.07630321e-002
      -2.35984158e-002 -2.34853588e-002 1.71900056e-002 2.07901988e-002
      -1.23954648e-002 2.16036290e-002 -1.37240888e-004 -1.03256684e-002
      8.81869532e-003 -2.05303519e-003 1.37780914e-002 5.77565730e-002
      2.97654327e-002 2.32817736e-002 2.13301051e-002 1.76063622e-003
      -2.96409279e-002 -5.99733414e-003 -3.37895714e-002 3.18258666e-002
      -3.23612802e-002 1.65359192e-002 -1.50248464e-002 5.62819093e-003
      -5.34646679e-003 -2.54017441e-003 1.40831443e-002 -3.44412290e-002
      3.80634964e-002 1.48623278e-002 4.24573310e-002 4.29540388e-002
      1.86463706e-002 1.34840198e-002 -1.79261155e-002 8.11649114e-003
      -2.34714504e-002 4.74050827e-003 3.01841702e-002 2.40723751e-002
      6.63743215e-003 -5.53997746e-003 6.61016209e-003 -1.00177685e-002
      2.55861599e-002 -8.50666407e-003 -1.12901051e-002 6.92276843e-003
      2.02367865e-002 8.55333405e-004 1.70973840e-003 1.01311887e-002
      -1.32564045e-002 3.56046343e-003 -5.59602454e-002 2.75234394e-002
      4.49161278e-003 2.91379970e-002 5.24725467e-002 2.56473739e-002
      3.43249142e-002 -7.32798781e-003 1.18913560e-003 -2.43907943e-002
      3.49324159e-002 -6.72950363e-003 2.65875906e-002 5.88430353e-002
      4.05661687e-002 -1.27528561e-002 -3.41405086e-002 1.04283802e-002
      -9.63781495e-003 -4.77905609e-002 -2.60440279e-002 4.24956437e-003
      -4.05230979e-003 1.20122870e-002 1.76131644e-003 2.86296272e-004
      4.78446893e-002 8.26301984e-003 4.45928238e-003 5.55175217e-003
      2.51183044e-002 6.96618296e-003 6.84529277e-006 1.17735537e-002
      -8.86680093e-003 1.53001649e-002 -1.31706037e-002 2.95641888e-002
      -5.18783517e-002 -4.71120002e-003 1.28543535e-002 2.47789621e-002
      2.17549857e-002 4.58213314e-003 6.80498108e-002 2.08728947e-002
      6.06501736e-002 -4.07070071e-002 -5.14318654e-003 -8.85623321e-003
      3.43869999e-002 -6.16295903e-004 -2.99361292e-002 1.36754867e-002
      -7.73957418e-003 1.11383488e-002 -1.02098975e-002 -6.95964647e-003
      -2.40521692e-002 5.41961472e-003 1.31035838e-002 -1.80718414e-002
      -1.82250736e-003 7.14453449e-003 2.08496284e-002 1.60735678e-002
      1.57053526e-002 -1.30090350e-002 1.43519156e-002 -2.35730293e-003
      -3.42255607e-002 4.20977846e-002 -8.55844375e-003 4.96740639e-002
      -3.33730504e-002 -4.93244315e-003 -1.19959470e-002 2.64104493e-002
      -6.17149798e-003 -2.49401666e-002 3.22054066e-002 6.12960663e-004
      5.04333526e-002 2.18873261e-003 1.13857090e-002 -6.29797811e-003
      3.48729901e-002 3.15860324e-002 1.40217235e-002 -2.19528377e-002
      -2.89202929e-002 -3.30390595e-002 -1.08428476e-002
      -5.89071633e-003 -2.66794022e-003 2.83609144e-002 4.96340171e-002
      1.76581945e-002 3.21348533e-002 2.23278161e-003 -7.68236630e-003
      3.58562544e-003 -2.59121181e-003 9.94230621e-003 3.95006649e-002
      1.56484563e-002 3.22464760e-003 2.07320713e-002 5.12999855e-003
      1.30665293e-002 -2.81241015e-002 -3.24896420e-003 -1.22210989e-002
      4.13746759e-002 2.64041964e-002 1.17028765e-002 2.37480663e-002
      7.66588608e-003 5.66506200e-002 -2.90010707e-003 1.58538464e-002
      -8.93815514e-003 3.52544375e-002 3.13812271e-002 -5.59340511e-003
      3.78531329e-002 2.13585645e-002 -8.78212973e-003 -2.75298636e-002
      9.30509251e-003 5.88490395e-003 2.10927427e-002 1.24581167e-002
      -3.01903905e-003 1.88964065e-002 1.12183839e-002 -5.27443457e-003
      -1.92701239e-002 3.43974791e-002 2.87683941e-002 2.80035101e-002
      2.01319046e-002 -5.36732562e-003 3.60797234e-002 5.95587073e-003
      5.94599284e-002 -7.60986516e-003 2.79129334e-002 1.83129392e-003
      2.24060304e-002 1.83960497e-002 3.81418527e-003 1.86426472e-002
      -6.26281276e-003 3.80025767e-002 -1.37227047e-002 3.08142100e-002
      3.38119343e-002 2.80178618e-002 3.30296382e-002 1.19413459e-003
      9.52226110e-003 -1.60401631e-002 -1.44473165e-002 -2.23626904e-002
      -6.21068291e-003 1.40976226e-002 5.53626642e-002 5.49183749e-002
      9.67029482e-003 1.64463855e-002 -3.92539008e-003 -1.22228395e-002
      -1.92550980e-002 -1.12335170e-002 3.54781491e-003 3.92178111e-002
      3.25927921e-002 8.42466671e-003 -2.10813573e-003 -1.70524865e-002
      2.83694919e-002 -2.65890863e-002 -6.21697074e-003 1.56824011e-002
      4.48237583e-002 4.24333997e-002 1.60500333e-002 1.50078498e-002
      4.44336794e-003 7.11871460e-002 -6.99203927e-004 -7.51939835e-004
      3.13118985e-003 3.53170373e-002 3.77163626e-002 -1.97431451e-004
      1.13354456e-002 -1.19440351e-002 -6.58215676e-003 -2.19637062e-002
      -1.78173222e-002 -7.58441444e-003 3.00429612e-002 3.12193986e-002
      -1.53226145e-002 -8.95077270e-003 1.81037147e-004 -8.64386838e-003
      -1.33934803e-002 -2.66039465e-002 4.96574398e-003 3.78557295e-002
      3.56768705e-002 -4.00753925e-003 1.42182196e-002 2.89004073e-002
      8.54672417e-002 9.20681574e-004 6.62119454e-003 1.21387811e-002
      4.72533554e-002 1.56245921e-002 -1.56084057e-002 -8.30827374e-003
      1.34859607e-002 5.36638275e-002 2.12868722e-003 -3.04807763e-004
      5.05235139e-003 3.30076180e-002 2.02557798e-002 -2.99008675e-002
      -4.01592590e-002 -1.13226920e-002 -1.98249333e-002
      -3.81938964e-002 -3.68411355e-002 -2.69811060e-002 1.49545949e-002
      1.22366855e-002 -4.00414784e-003 -2.47355979e-002 1.77939069e-002
      1.93976648e-002 1.30179673e-002 -1.45060048e-002 -7.85633363e-003
      8.86332244e-003 3.29150595e-002 -2.79621012e-003 -2.50834711e-002
      -4.36151586e-003 4.32222858e-002 -2.15464309e-002 -1.87688209e-002
      -1.17567666e-002 2.70572808e-002 4.01996784e-002 1.10339848e-002
      -1.18520446e-002 1.16216317e-002 4.46961820e-002 1.93634871e-002
      1.09980963e-002 1.74818560e-002 4.66110371e-002 4.58109565e-003
      3.09637561e-003 -1.51270151e-003 -2.22945698e-002 -2.61395983e-002
      -2.00616140e-002 -3.19856703e-002 -1.61169823e-002 1.26365363e-003
      2.43138764e-002 3.44045497e-002 3.44016999e-002 1.39772762e-002
      5.96100988e-004 -1.14913071e-002 -1.08555267e-002 3.07089109e-002
      3.57500166e-002 1.07292254e-002 -6.85181515e-003 -1.35678109e-002
      -2.04222407e-002 1.78021677e-002 -2.02894732e-002 -2.17395891e-002
      -1.18445968e-002 1.07451016e-002 2.94329934e-002 3.35239060e-002
      3.89276482e-002 1.79804284e-002 5.87312281e-002 2.48413272e-002
      4.87610931e-003 1.82024110e-002 3.12493686e-002 3.07594170e-003
      3.07895131e-002 1.65910423e-002 2.24354528e-002 4.32584248e-002
      -2.87756091e-003 -5.51544456e-003 2.77046487e-002 5.50794927e-003
      3.79788987e-002 1.71125904e-002 1.25134578e-002 1.38749126e-002
      6.02006949e-002 1.58290174e-002 4.00866428e-003 3.39353532e-002
      3.43059227e-002 -2.13000458e-002 1.13513935e-002 2.96139512e-002
      2.86890715e-002 7.76996762e-002 1.73240658e-002 -1.12866820e-003
      4.29339780e-005 -8.48695729e-003 -1.91083178e-002 -3.96296429e-003
      2.21465584e-002 2.92517804e-002 9.36316475e-002 5.03546151e-004
      -3.75773832e-002 -1.66628161e-003 4.04267944e-003</_></support_vectors>
  <decision_functions>
    <_>
      <sv_count>1</sv_count>
      <rho>-9.0927850448258074e-002</rho>
      <alpha>
        1.</alpha>
      <index>
        0</index></_></decision_functions></my_svm>
</opencv_storage>
